<?xml version="1.0"?>
<opencv_storage>
<myhaar type_id="opencv-haar-classifier">
  <size>
    24 24</size>
  <stages>
    <_>
      <trees>
        <_>
          <_>
            <feature>
              <rects>
                <_>
                  3 0 18 18 -1.</_>
                <_>
                  3 6 18 6 3.</_></rects>
              <tilted>0</tilted></feature>
            <threshold>-0.3262645006179810</threshold>
            <left_val>0.9021738171577454</left_val>
            <right_val>-0.9999986886978149</right_val></_></_></trees>
      <stage_threshold>0.9021738171577454</stage_threshold>
      <parent>-1</parent>
      <next>-1</next></_>
    <_>
      <trees>
        <_>
          <_>
            <feature>
              <rects>
                <_>
                  9 0 4 4 -1.</_>
                <_>
                  9 1 4 2 2.</_></rects>
              <tilted>0</tilted></feature>
            <threshold>5.8284490369260311e-003</threshold>
            <left_val>-1.</left_val>
            <right_val>0.8918918967247009</right_val></_></_></trees>
      <stage_threshold>0.8918918967247009</stage_threshold>
      <parent>0</parent>
      <next>-1</next></_>
    <_>
      <trees>
        <_>
          <_>
            <feature>
              <rects>
                <_>
                  3 8 5 3 -1.</_>
                <_>
                  3 9 5 1 3.</_></rects>
              <tilted>0</tilted></feature>
            <threshold>-4.7787949442863464e-003</threshold>
            <left_val>0.7412933111190796</left_val>
            <right_val>-0.9999986290931702</right_val></_></_></trees>
      <stage_threshold>0.7412933111190796</stage_threshold>
      <parent>1</parent>
      <next>-1</next></_>
    <_>
      <trees>
        <_>
          <_>
            <feature>
              <rects>
                <_>
                  2 3 1 3 -1.</_>
                <_>
                  2 4 1 1 3.</_></rects>
              <tilted>0</tilted></feature>
            <threshold>9.7108300542458892e-004</threshold>
            <left_val>-1.</left_val>
            <right_val>0.6509432196617127</right_val></_></_></trees>
      <stage_threshold>0.6509432196617127</stage_threshold>
      <parent>2</parent>
      <next>-1</next></_>
    <_>
      <trees>
        <_>
          <_>
            <feature>
              <rects>
                <_>
                  7 18 4 2 -1.</_>
                <_>
                  7 18 4 1 2.</_></rects>
              <tilted>1</tilted></feature>
            <threshold>-3.1928580719977617e-003</threshold>
            <left_val>0.6509432196617127</left_val>
            <right_val>-0.9999985098838806</right_val></_></_></trees>
      <stage_threshold>0.6509432196617127</stage_threshold>
      <parent>3</parent>
      <next>-1</next></_>
    <_>
      <trees>
        <_>
          <_>
            <feature>
              <rects>
                <_>
                  9 5 4 18 -1.</_>
                <_>
                  9 14 4 9 2.</_></rects>
              <tilted>0</tilted></feature>
            <threshold>0.0719719678163528</threshold>
            <left_val>-1.</left_val>
            <right_val>0.6431925296783447</right_val></_></_></trees>
      <stage_threshold>0.6431925296783447</stage_threshold>
      <parent>4</parent>
      <next>-1</next></_></stages></myhaar>
</opencv_storage>
