<?xml version="1.0"?>
<opencv_storage>
<cascade>
  <stageType>BOOST</stageType>
  <featureType>HAAR</featureType>
  <height>24</height>
  <width>24</width>
  <stageParams>
    <boostType>GAB</boostType>
    <minHitRate>9.9500000476837158e-01</minHitRate>
    <maxFalseAlarm>5.0000000000000000e-01</maxFalseAlarm>
    <weightTrimRate>9.4999998807907104e-01</weightTrimRate>
    <maxDepth>1</maxDepth>
    <maxWeakCount>100</maxWeakCount></stageParams>
  <featureParams>
    <maxCatCount>0</maxCatCount>
    <featSize>1</featSize>
    <mode>BASIC</mode></featureParams>
  <stageNum>6</stageNum>
  <stages>
    <!-- stage 0 -->
    <_>
      <maxWeakCount>2</maxWeakCount>
      <stageThreshold>-5.7682383060455322e-01</stageThreshold>
      <weakClassifiers>
        <_>
          <internalNodes>
            0 -1 9 -1.6169507801532745e-01</internalNodes>
          <leafValues>
            1. -9.9600797891616821e-01</leafValues></_>
        <_>
          <internalNodes>
            0 -1 5 -1.5039339661598206e-01</internalNodes>
          <leafValues>
            4.1918414831161499e-01 -1.</leafValues></_></weakClassifiers></_>
    <!-- stage 1 -->
    <_>
      <maxWeakCount>3</maxWeakCount>
      <stageThreshold>-1.7282234430313110e+00</stageThreshold>
      <weakClassifiers>
        <_>
          <internalNodes>
            0 -1 6 1.4424729347229004e-01</internalNodes>
          <leafValues>
            -9.9003982543945313e-01 6.6666668653488159e-01</leafValues></_>
        <_>
          <internalNodes>
            0 -1 7 4.6803307533264160e-01</internalNodes>
          <leafValues>
            -9.6836155652999878e-01 2.3176141083240509e-01</leafValues></_>
        <_>
          <internalNodes>
            0 -1 1 1.1081530153751373e-01</internalNodes>
          <leafValues>
            -9.6994501352310181e-01 4.8986679315567017e-01</leafValues></_></weakClassifiers></_>
    <!-- stage 2 -->
    <_>
      <maxWeakCount>3</maxWeakCount>
      <stageThreshold>-1.7382709980010986e+00</stageThreshold>
      <weakClassifiers>
        <_>
          <internalNodes>
            0 -1 11 2.2153081372380257e-02</internalNodes>
          <leafValues>
            -9.8608350753784180e-01 5.0000000000000000e-01</leafValues></_>
        <_>
          <internalNodes>
            0 -1 8 2.3157006129622459e-02</internalNodes>
          <leafValues>
            -9.7503519058227539e-01 -6.3859894871711731e-02</leafValues></_>
        <_>
          <internalNodes>
            0 -1 0 7.7723309397697449e-02</internalNodes>
          <leafValues>
            -1. 2.2284771502017975e-01</leafValues></_></weakClassifiers></_>
    <!-- stage 3 -->
    <_>
      <maxWeakCount>3</maxWeakCount>
      <stageThreshold>-1.6697242259979248e+00</stageThreshold>
      <weakClassifiers>
        <_>
          <internalNodes>
            0 -1 2 8.5533253848552704e-02</internalNodes>
          <leafValues>
            -9.8412698507308960e-01 1.</leafValues></_>
        <_>
          <internalNodes>
            0 -1 14 -2.5305917952209711e-03</internalNodes>
          <leafValues>
            2.1756513416767120e-01 -9.5698535442352295e-01</leafValues></_>
        <_>
          <internalNodes>
            0 -1 16 4.7103632241487503e-03</internalNodes>
          <leafValues>
            -9.0316236019134521e-01 6.6830617189407349e-01</leafValues></_></weakClassifiers></_>
    <!-- stage 4 -->
    <_>
      <maxWeakCount>3</maxWeakCount>
      <stageThreshold>-1.6323699951171875e+00</stageThreshold>
      <weakClassifiers>
        <_>
          <internalNodes>
            0 -1 3 1.2343734502792358e-01</internalNodes>
          <leafValues>
            -9.8412698507308960e-01 1.</leafValues></_>
        <_>
          <internalNodes>
            0 -1 15 4.5275196433067322e-02</internalNodes>
          <leafValues>
            -9.5719969272613525e-01 3.3074101805686951e-01</leafValues></_>
        <_>
          <internalNodes>
            0 -1 4 -2.5210307911038399e-02</internalNodes>
          <leafValues>
            3.0895674228668213e-01 -9.7184163331985474e-01</leafValues></_></weakClassifiers></_>
    <!-- stage 5 -->
    <_>
      <maxWeakCount>3</maxWeakCount>
      <stageThreshold>-1.7508168220520020e+00</stageThreshold>
      <weakClassifiers>
        <_>
          <internalNodes>
            0 -1 10 -1.7515470087528229e-01</internalNodes>
          <leafValues>
            0. -9.8605579137802124e-01</leafValues></_>
        <_>
          <internalNodes>
            0 -1 13 1.0423267260193825e-02</internalNodes>
          <leafValues>
            -9.2911100387573242e-01 6.8698036670684814e-01</leafValues></_>
        <_>
          <internalNodes>
            0 -1 12 -3.6827921867370605e-03</internalNodes>
          <leafValues>
            1.6434994339942932e-01 -1.</leafValues></_></weakClassifiers></_></stages>
  <features>
    <_>
      <rects>
        <_>
          0 0 7 18 -1.</_>
        <_>
          0 9 7 9 2.</_></rects>
      <tilted>0</tilted></_>
    <_>
      <rects>
        <_>
          0 7 10 17 -1.</_>
        <_>
          5 7 5 17 2.</_></rects>
      <tilted>0</tilted></_>
    <_>
      <rects>
        <_>
          1 14 15 2 -1.</_>
        <_>
          6 14 5 2 3.</_></rects>
      <tilted>0</tilted></_>
    <_>
      <rects>
        <_>
          2 1 9 4 -1.</_>
        <_>
          5 1 3 4 3.</_></rects>
      <tilted>0</tilted></_>
    <_>
      <rects>
        <_>
          3 4 6 20 -1.</_>
        <_>
          5 4 2 20 3.</_></rects>
      <tilted>0</tilted></_>
    <_>
      <rects>
        <_>
          4 3 12 12 -1.</_>
        <_>
          8 3 4 12 3.</_></rects>
      <tilted>0</tilted></_>
    <_>
      <rects>
        <_>
          5 0 6 11 -1.</_>
        <_>
          7 0 2 11 3.</_></rects>
      <tilted>0</tilted></_>
    <_>
      <rects>
        <_>
          5 0 19 24 -1.</_>
        <_>
          5 12 19 12 2.</_></rects>
      <tilted>0</tilted></_>
    <_>
      <rects>
        <_>
          5 5 14 4 -1.</_>
        <_>
          5 7 14 2 2.</_></rects>
      <tilted>0</tilted></_>
    <_>
      <rects>
        <_>
          6 0 8 15 -1.</_>
        <_>
          10 0 4 15 2.</_></rects>
      <tilted>0</tilted></_>
    <_>
      <rects>
        <_>
          6 14 18 5 -1.</_>
        <_>
          12 14 6 5 3.</_></rects>
      <tilted>0</tilted></_>
    <_>
      <rects>
        <_>
          8 1 1 9 -1.</_>
        <_>
          8 4 1 3 3.</_></rects>
      <tilted>0</tilted></_>
    <_>
      <rects>
        <_>
          11 4 4 6 -1.</_>
        <_>
          11 4 2 3 2.</_>
        <_>
          13 7 2 3 2.</_></rects>
      <tilted>0</tilted></_>
    <_>
      <rects>
        <_>
          13 0 3 1 -1.</_>
        <_>
          14 0 1 1 3.</_></rects>
      <tilted>0</tilted></_>
    <_>
      <rects>
        <_>
          14 2 2 2 -1.</_>
        <_>
          14 2 1 1 2.</_>
        <_>
          15 3 1 1 2.</_></rects>
      <tilted>0</tilted></_>
    <_>
      <rects>
        <_>
          14 11 3 12 -1.</_>
        <_>
          14 17 3 6 2.</_></rects>
      <tilted>0</tilted></_>
    <_>
      <rects>
        <_>
          15 22 4 2 -1.</_>
        <_>
          15 23 4 1 2.</_></rects>
      <tilted>0</tilted></_></features></cascade>
</opencv_storage>
