<?xml version="1.0"?>
<opencv_storage>
<myhaar type_id="opencv-haar-classifier">
  <size>
    24 24</size>
  <stages>
    <_>
      <trees>
        <_>
          <_>
            <feature>
              <rects>
                <_>
                  0 0 10 14 -1.</_>
                <_>
                  0 0 5 7 2.</_>
                <_>
                  5 7 5 7 2.</_></rects>
              <tilted>0</tilted></feature>
            <threshold>0.0953218564391136</threshold>
            <left_val>-1.</left_val>
            <right_val>0.9703688025474548</right_val></_></_></trees>
      <stage_threshold>0.9703688025474548</stage_threshold>
      <parent>-1</parent>
      <next>-1</next></_>
    <_>
      <trees>
        <_>
          <_>
            <feature>
              <rects>
                <_>
                  0 9 4 1 -1.</_>
                <_>
                  1 9 2 1 2.</_></rects>
              <tilted>0</tilted></feature>
            <threshold>-1.6302820295095444e-003</threshold>
            <left_val>0.8095238804817200</left_val>
            <right_val>-1.0000020265579224</right_val></_></_></trees>
      <stage_threshold>0.8095238804817200</stage_threshold>
      <parent>0</parent>
      <next>-1</next></_>
    <_>
      <trees>
        <_>
          <_>
            <feature>
              <rects>
                <_>
                  7 0 2 1 -1.</_>
                <_>
                  7 0 1 1 2.</_></rects>
              <tilted>1</tilted></feature>
            <threshold>7.2776568122208118e-003</threshold>
            <left_val>-0.7047724723815918</left_val>
            <right_val>0.9136673212051392</right_val></_></_>
        <_>
          <_>
            <feature>
              <rects>
                <_>
                  15 18 5 4 -1.</_>
                <_>
                  15 20 5 2 2.</_></rects>
              <tilted>0</tilted></feature>
            <threshold>-2.3956769146025181e-003</threshold>
            <left_val>-1.</left_val>
            <right_val>0.3193126916885376</right_val></_></_>
        <_>
          <_>
            <feature>
              <rects>
                <_>
                  5 18 5 4 -1.</_>
                <_>
                  5 20 5 2 2.</_></rects>
              <tilted>0</tilted></feature>
            <threshold>4.5981858856976032e-003</threshold>
            <left_val>-0.9067062139511108</left_val>
            <right_val>0.7626485228538513</right_val></_></_></trees>
      <stage_threshold>0.3262737095355988</stage_threshold>
      <parent>1</parent>
      <next>-1</next></_>
    <_>
      <trees>
        <_>
          <_>
            <feature>
              <rects>
                <_>
                  8 6 16 1 -1.</_>
                <_>
                  12 10 8 1 2.</_></rects>
              <tilted>1</tilted></feature>
            <threshold>0.0168477799743414</threshold>
            <left_val>-0.8321769833564758</left_val>
            <right_val>0.8207827806472778</right_val></_></_>
        <_>
          <_>
            <feature>
              <rects>
                <_>
                  12 1 2 20 -1.</_>
                <_>
                  12 6 2 10 2.</_></rects>
              <tilted>0</tilted></feature>
            <threshold>9.1557530686259270e-003</threshold>
            <left_val>-1.</left_val>
            <right_val>0.5142710208892822</right_val></_></_></trees>
      <stage_threshold>-0.3179059922695160</stage_threshold>
      <parent>2</parent>
      <next>-1</next></_>
    <_>
      <trees>
        <_>
          <_>
            <feature>
              <rects>
                <_>
                  12 9 12 1 -1.</_>
                <_>
                  15 12 6 1 2.</_></rects>
              <tilted>1</tilted></feature>
            <threshold>8.7750647217035294e-003</threshold>
            <left_val>-0.8241900801658630</left_val>
            <right_val>0.7427030205726624</right_val></_></_>
        <_>
          <_>
            <feature>
              <rects>
                <_>
                  14 1 1 6 -1.</_>
                <_>
                  14 1 1 3 2.</_></rects>
              <tilted>1</tilted></feature>
            <threshold>0.0112159298732877</threshold>
            <left_val>-0.2034540027379990</left_val>
            <right_val>0.6366456151008606</right_val></_></_></trees>
      <stage_threshold>-0.1875444948673248</stage_threshold>
      <parent>3</parent>
      <next>-1</next></_>
    <_>
      <trees>
        <_>
          <_>
            <feature>
              <rects>
                <_>
                  1 0 18 2 -1.</_>
                <_>
                  10 0 9 2 2.</_></rects>
              <tilted>0</tilted></feature>
            <threshold>-0.0294837802648544</threshold>
            <left_val>0.6121215224266052</left_val>
            <right_val>-1.0000020265579224</right_val></_></_></trees>
      <stage_threshold>0.6121215224266052</stage_threshold>
      <parent>4</parent>
      <next>-1</next></_></stages></myhaar>
</opencv_storage>
