<?xml version="1.0"?>
<opencv_storage>
<cascade>
  <stageType>BOOST</stageType>
  <featureType>HAAR</featureType>
  <height>24</height>
  <width>24</width>
  <stageParams>
    <boostType>GAB</boostType>
    <minHitRate>9.9500000476837158e-01</minHitRate>
    <maxFalseAlarm>5.0000000000000000e-01</maxFalseAlarm>
    <weightTrimRate>9.4999998807907104e-01</weightTrimRate>
    <maxDepth>1</maxDepth>
    <maxWeakCount>100</maxWeakCount></stageParams>
  <featureParams>
    <maxCatCount>0</maxCatCount>
    <featSize>1</featSize>
    <mode>BASIC</mode></featureParams>
  <stageNum>17</stageNum>
  <stages>
    <!-- stage 0 -->
    <_>
      <maxWeakCount>5</maxWeakCount>
      <stageThreshold>-2.0821263790130615e+00</stageThreshold>
      <weakClassifiers>
        <_>
          <internalNodes>
            0 -1 5 -2.9986405372619629e-01</internalNodes>
          <leafValues>
            1. -9.5694714784622192e-01</leafValues></_>
        <_>
          <internalNodes>
            0 -1 28 1.7411568760871887e-01</internalNodes>
          <leafValues>
            -8.0375599861145020e-01 8.6262679100036621e-01</leafValues></_>
        <_>
          <internalNodes>
            0 -1 51 -5.3300904110074043e-03</internalNodes>
          <leafValues>
            2.3822861909866333e-01 -8.2526737451553345e-01</leafValues></_>
        <_>
          <internalNodes>
            0 -1 26 -1.5743188560009003e-03</internalNodes>
          <leafValues>
            -1. 1.8308655917644501e-01</leafValues></_>
        <_>
          <internalNodes>
            0 -1 69 5.5959646124392748e-04</internalNodes>
          <leafValues>
            -7.3509794473648071e-01 3.2075771689414978e-01</leafValues></_></weakClassifiers></_>
    <!-- stage 1 -->
    <_>
      <maxWeakCount>4</maxWeakCount>
      <stageThreshold>-2.0434720516204834e+00</stageThreshold>
      <weakClassifiers>
        <_>
          <internalNodes>
            0 -1 35 -1.8196687102317810e-01</internalNodes>
          <leafValues>
            1. -9.5503419637680054e-01</leafValues></_>
        <_>
          <internalNodes>
            0 -1 20 -3.8189344108104706e-02</internalNodes>
          <leafValues>
            6.2247866392135620e-01 -8.0300599336624146e-01</leafValues></_>
        <_>
          <internalNodes>
            0 -1 16 1.1871438473463058e-03</internalNodes>
          <leafValues>
            -7.2836422920227051e-01 2.0823325216770172e-01</leafValues></_>
        <_>
          <internalNodes>
            0 -1 63 5.5315336212515831e-03</internalNodes>
          <leafValues>
            -4.9366515874862671e-01 5.8475440740585327e-01</leafValues></_></weakClassifiers></_>
    <!-- stage 2 -->
    <_>
      <maxWeakCount>4</maxWeakCount>
      <stageThreshold>-1.8103485107421875e+00</stageThreshold>
      <weakClassifiers>
        <_>
          <internalNodes>
            0 -1 59 1.4161735773086548e-01</internalNodes>
          <leafValues>
            -9.5878314971923828e-01 7.6470589637756348e-01</leafValues></_>
        <_>
          <internalNodes>
            0 -1 33 -1.0860027372837067e-01</internalNodes>
          <leafValues>
            6.1917185783386230e-01 -8.0116498470306396e-01</leafValues></_>
        <_>
          <internalNodes>
            0 -1 62 -6.1634987592697144e-02</internalNodes>
          <leafValues>
            4.6106132864952087e-01 -6.9218969345092773e-01</leafValues></_>
        <_>
          <internalNodes>
            0 -1 43 6.9708130322396755e-03</internalNodes>
          <leafValues>
            -4.9852070212364197e-01 6.4178931713104248e-01</leafValues></_></weakClassifiers></_>
    <!-- stage 3 -->
    <_>
      <maxWeakCount>4</maxWeakCount>
      <stageThreshold>-1.5253891944885254e+00</stageThreshold>
      <weakClassifiers>
        <_>
          <internalNodes>
            0 -1 3 -9.9672332406044006e-02</internalNodes>
          <leafValues>
            6.6666668653488159e-01 -9.5874261856079102e-01</leafValues></_>
        <_>
          <internalNodes>
            0 -1 29 1.8916280567646027e-01</internalNodes>
          <leafValues>
            -7.8098100423812866e-01 3.6479240655899048e-01</leafValues></_>
        <_>
          <internalNodes>
            0 -1 74 5.9185206191614270e-04</internalNodes>
          <leafValues>
            7.0263966917991638e-02 -9.7472172975540161e-01</leafValues></_>
        <_>
          <internalNodes>
            0 -1 30 -6.0438609216362238e-04</internalNodes>
          <leafValues>
            -1. 1.4407040178775787e-01</leafValues></_></weakClassifiers></_>
    <!-- stage 4 -->
    <_>
      <maxWeakCount>5</maxWeakCount>
      <stageThreshold>-2.1904518604278564e+00</stageThreshold>
      <weakClassifiers>
        <_>
          <internalNodes>
            0 -1 7 -3.1849637627601624e-01</internalNodes>
          <leafValues>
            1. -9.5312500000000000e-01</leafValues></_>
        <_>
          <internalNodes>
            0 -1 34 -4.0591798722743988e-02</internalNodes>
          <leafValues>
            3.0646759271621704e-01 -7.9002082347869873e-01</leafValues></_>
        <_>
          <internalNodes>
            0 -1 12 -1.2548866216093302e-03</internalNodes>
          <leafValues>
            1.5392954647541046e-01 -7.7495956420898438e-01</leafValues></_>
        <_>
          <internalNodes>
            0 -1 25 6.4986385405063629e-04</internalNodes>
          <leafValues>
            1.5892989933490753e-01 -1.</leafValues></_>
        <_>
          <internalNodes>
            0 -1 6 -1.0309797944501042e-03</internalNodes>
          <leafValues>
            -1. 1.6872356832027435e-01</leafValues></_></weakClassifiers></_>
    <!-- stage 5 -->
    <_>
      <maxWeakCount>5</maxWeakCount>
      <stageThreshold>-2.0586953163146973e+00</stageThreshold>
      <weakClassifiers>
        <_>
          <internalNodes>
            0 -1 21 -4.1705232858657837e-01</internalNodes>
          <leafValues>
            1. -9.5312500000000000e-01</leafValues></_>
        <_>
          <internalNodes>
            0 -1 10 -2.4660188704729080e-02</internalNodes>
          <leafValues>
            2.9970717430114746e-01 -8.0040699243545532e-01</leafValues></_>
        <_>
          <internalNodes>
            0 -1 19 -4.9484245479106903e-02</internalNodes>
          <leafValues>
            2.2135347127914429e-01 -6.7317384481430054e-01</leafValues></_>
        <_>
          <internalNodes>
            0 -1 72 2.9376905877143145e-04</internalNodes>
          <leafValues>
            1.7542363703250885e-01 -1.</leafValues></_>
        <_>
          <internalNodes>
            0 -1 71 4.7025911044329405e-04</internalNodes>
          <leafValues>
            1.9258686900138855e-01 -9.4442397356033325e-01</leafValues></_></weakClassifiers></_>
    <!-- stage 6 -->
    <_>
      <maxWeakCount>4</maxWeakCount>
      <stageThreshold>-1.7318110466003418e+00</stageThreshold>
      <weakClassifiers>
        <_>
          <internalNodes>
            0 -1 22 -1.5505018830299377e-01</internalNodes>
          <leafValues>
            1. -9.5312500000000000e-01</leafValues></_>
        <_>
          <internalNodes>
            0 -1 31 1.8154434859752655e-02</internalNodes>
          <leafValues>
            -8.2925361394882202e-01 8.0331802368164063e-02</leafValues></_>
        <_>
          <internalNodes>
            0 -1 32 -2.1937392652034760e-02</internalNodes>
          <leafValues>
            4.2058327794075012e-01 -5.6303501129150391e-01</leafValues></_>
        <_>
          <internalNodes>
            0 -1 47 -1.0323137044906616e-02</internalNodes>
          <leafValues>
            7.8436243534088135e-01 -2.9598283767700195e-01</leafValues></_></weakClassifiers></_>
    <!-- stage 7 -->
    <_>
      <maxWeakCount>4</maxWeakCount>
      <stageThreshold>-1.9442005157470703e+00</stageThreshold>
      <weakClassifiers>
        <_>
          <internalNodes>
            0 -1 14 -2.4516011774539948e-01</internalNodes>
          <leafValues>
            8.3333331346511841e-01 -9.5117187500000000e-01</leafValues></_>
        <_>
          <internalNodes>
            0 -1 9 4.6620748937129974e-02</internalNodes>
          <leafValues>
            -7.6056009531021118e-01 2.6939237117767334e-01</leafValues></_>
        <_>
          <internalNodes>
            0 -1 67 2.6967597659677267e-03</internalNodes>
          <leafValues>
            -6.6645312309265137e-01 2.7975818514823914e-01</leafValues></_>
        <_>
          <internalNodes>
            0 -1 50 1.8567126244306564e-03</internalNodes>
          <leafValues>
            -5.1222676038742065e-01 4.9807813763618469e-01</leafValues></_></weakClassifiers></_>
    <!-- stage 8 -->
    <_>
      <maxWeakCount>5</maxWeakCount>
      <stageThreshold>-1.7325652837753296e+00</stageThreshold>
      <weakClassifiers>
        <_>
          <internalNodes>
            0 -1 40 -2.9525015503168106e-02</internalNodes>
          <leafValues>
            8.0000001192092896e-01 -9.4736844301223755e-01</leafValues></_>
        <_>
          <internalNodes>
            0 -1 41 -2.6225326582789421e-02</internalNodes>
          <leafValues>
            4.8845496773719788e-01 -7.4660491943359375e-01</leafValues></_>
        <_>
          <internalNodes>
            0 -1 11 -1.3103765668347478e-03</internalNodes>
          <leafValues>
            2.4104067683219910e-01 -7.1053910255432129e-01</leafValues></_>
        <_>
          <internalNodes>
            0 -1 70 -6.2038903706707060e-05</internalNodes>
          <leafValues>
            -6.2486839294433594e-01 3.0747732520103455e-01</leafValues></_>
        <_>
          <internalNodes>
            0 -1 37 -5.8625120436772704e-04</internalNodes>
          <leafValues>
            3.6446982622146606e-01 -5.3248029947280884e-01</leafValues></_></weakClassifiers></_>
    <!-- stage 9 -->
    <_>
      <maxWeakCount>6</maxWeakCount>
      <stageThreshold>-2.0595707893371582e+00</stageThreshold>
      <weakClassifiers>
        <_>
          <internalNodes>
            0 -1 15 -1.2316776812076569e-01</internalNodes>
          <leafValues>
            1. -9.4552528858184814e-01</leafValues></_>
        <_>
          <internalNodes>
            0 -1 49 2.7702581137418747e-02</internalNodes>
          <leafValues>
            -7.4442172050476074e-01 7.7657604217529297e-01</leafValues></_>
        <_>
          <internalNodes>
            0 -1 18 -3.7240743637084961e-02</internalNodes>
          <leafValues>
            2.2849771380424500e-01 -6.1334872245788574e-01</leafValues></_>
        <_>
          <internalNodes>
            0 -1 64 -2.1490806830115616e-04</internalNodes>
          <leafValues>
            4.1766667366027832e-01 -4.2742413282394409e-01</leafValues></_>
        <_>
          <internalNodes>
            0 -1 60 -3.5484872758388519e-02</internalNodes>
          <leafValues>
            5.4263365268707275e-01 -3.8138464093208313e-01</leafValues></_>
        <_>
          <internalNodes>
            0 -1 46 -1.0293056257069111e-03</internalNodes>
          <leafValues>
            -1. 2.1068727970123291e-01</leafValues></_></weakClassifiers></_>
    <!-- stage 10 -->
    <_>
      <maxWeakCount>4</maxWeakCount>
      <stageThreshold>-1.7344435453414917e+00</stageThreshold>
      <weakClassifiers>
        <_>
          <internalNodes>
            0 -1 36 -3.1478989869356155e-02</internalNodes>
          <leafValues>
            7.7777779102325439e-01 -9.4547224044799805e-01</leafValues></_>
        <_>
          <internalNodes>
            0 -1 17 -3.8252107799053192e-02</internalNodes>
          <leafValues>
            4.5843288302421570e-01 -7.5325864553451538e-01</leafValues></_>
        <_>
          <internalNodes>
            0 -1 77 4.4660046696662903e-03</internalNodes>
          <leafValues>
            -4.2883846163749695e-01 6.2083202600479126e-01</leafValues></_>
        <_>
          <internalNodes>
            0 -1 57 1.0193453636020422e-03</internalNodes>
          <leafValues>
            -5.4686057567596436e-01 3.9312586188316345e-01</leafValues></_></weakClassifiers></_>
    <!-- stage 11 -->
    <_>
      <maxWeakCount>6</maxWeakCount>
      <stageThreshold>-2.2053260803222656e+00</stageThreshold>
      <weakClassifiers>
        <_>
          <internalNodes>
            0 -1 24 -1.3432106375694275e-01</internalNodes>
          <leafValues>
            7.5000000000000000e-01 -9.4357979297637939e-01</leafValues></_>
        <_>
          <internalNodes>
            0 -1 54 -4.2125880718231201e-02</internalNodes>
          <leafValues>
            6.8777024745941162e-01 -7.2826808691024780e-01</leafValues></_>
        <_>
          <internalNodes>
            0 -1 48 2.1184555953368545e-04</internalNodes>
          <leafValues>
            -6.1293846368789673e-01 2.3741114139556885e-01</leafValues></_>
        <_>
          <internalNodes>
            0 -1 73 1.8792644841596484e-03</internalNodes>
          <leafValues>
            1.5678472816944122e-01 -1.</leafValues></_>
        <_>
          <internalNodes>
            0 -1 65 -1.3723259791731834e-02</internalNodes>
          <leafValues>
            6.4072716236114502e-01 -3.0446857213973999e-01</leafValues></_>
        <_>
          <internalNodes>
            0 -1 8 1.6360433073714375e-04</internalNodes>
          <leafValues>
            2.2714416682720184e-01 -9.0859073400497437e-01</leafValues></_></weakClassifiers></_>
    <!-- stage 12 -->
    <_>
      <maxWeakCount>5</maxWeakCount>
      <stageThreshold>-1.9242757558822632e+00</stageThreshold>
      <weakClassifiers>
        <_>
          <internalNodes>
            0 -1 53 -5.8026291429996490e-02</internalNodes>
          <leafValues>
            5.0000000000000000e-01 -9.4163423776626587e-01</leafValues></_>
        <_>
          <internalNodes>
            0 -1 38 -2.0690632984042168e-02</internalNodes>
          <leafValues>
            1.5783330798149109e-01 -7.6002860069274902e-01</leafValues></_>
        <_>
          <internalNodes>
            0 -1 52 1.3394191046245396e-04</internalNodes>
          <leafValues>
            -8.1130504608154297e-01 8.5942745208740234e-02</leafValues></_>
        <_>
          <internalNodes>
            0 -1 13 -5.6675224186619744e-05</internalNodes>
          <leafValues>
            -7.1242213249206543e-01 1.9273170828819275e-01</leafValues></_>
        <_>
          <internalNodes>
            0 -1 0 -1.5727391466498375e-02</internalNodes>
          <leafValues>
            4.0386649966239929e-01 -4.5291197299957275e-01</leafValues></_></weakClassifiers></_>
    <!-- stage 13 -->
    <_>
      <maxWeakCount>5</maxWeakCount>
      <stageThreshold>-1.8439586162567139e+00</stageThreshold>
      <weakClassifiers>
        <_>
          <internalNodes>
            0 -1 24 -1.3494998216629028e-01</internalNodes>
          <leafValues>
            5.5555558204650879e-01 -9.4352483749389648e-01</leafValues></_>
        <_>
          <internalNodes>
            0 -1 58 -3.7093353457748890e-03</internalNodes>
          <leafValues>
            1.3265782594680786e-01 -7.5046187639236450e-01</leafValues></_>
        <_>
          <internalNodes>
            0 -1 76 -7.0004847657401115e-05</internalNodes>
          <leafValues>
            1.3623270392417908e-01 -6.7983371019363403e-01</leafValues></_>
        <_>
          <internalNodes>
            0 -1 42 2.4507159832865000e-04</internalNodes>
          <leafValues>
            -4.7467041015625000e-01 3.9400169253349304e-01</leafValues></_>
        <_>
          <internalNodes>
            0 -1 1 1.7360688070766628e-04</internalNodes>
          <leafValues>
            2.7843496203422546e-01 -6.8020635843276978e-01</leafValues></_></weakClassifiers></_>
    <!-- stage 14 -->
    <_>
      <maxWeakCount>4</maxWeakCount>
      <stageThreshold>-1.7797573804855347e+00</stageThreshold>
      <weakClassifiers>
        <_>
          <internalNodes>
            0 -1 4 -7.2959196567535400e-01</internalNodes>
          <leafValues>
            1. -9.4174754619598389e-01</leafValues></_>
        <_>
          <internalNodes>
            0 -1 55 2.7139391750097275e-02</internalNodes>
          <leafValues>
            -7.3608332872390747e-01 8.0405664443969727e-01</leafValues></_>
        <_>
          <internalNodes>
            0 -1 75 1.2276449706405401e-04</internalNodes>
          <leafValues>
            -6.6214239597320557e-01 1.5799318253993988e-01</leafValues></_>
        <_>
          <internalNodes>
            0 -1 56 -4.1893858462572098e-02</internalNodes>
          <leafValues>
            7.8039342164993286e-01 -2.5991964340209961e-01</leafValues></_></weakClassifiers></_>
    <!-- stage 15 -->
    <_>
      <maxWeakCount>5</maxWeakCount>
      <stageThreshold>-1.9693847894668579e+00</stageThreshold>
      <weakClassifiers>
        <_>
          <internalNodes>
            0 -1 27 -6.5675771236419678e-01</internalNodes>
          <leafValues>
            6.3636362552642822e-01 -9.4731706380844116e-01</leafValues></_>
        <_>
          <internalNodes>
            0 -1 39 3.0005339533090591e-02</internalNodes>
          <leafValues>
            -8.0401754379272461e-01 -2.0848061144351959e-01</leafValues></_>
        <_>
          <internalNodes>
            0 -1 61 -1.0156203061342239e-03</internalNodes>
          <leafValues>
            3.4010538458824158e-01 -5.1619392633438110e-01</leafValues></_>
        <_>
          <internalNodes>
            0 -1 66 1.2345757568255067e-04</internalNodes>
          <leafValues>
            2.4406051635742188e-01 -6.7370736598968506e-01</leafValues></_>
        <_>
          <internalNodes>
            0 -1 45 -6.0260310419835150e-05</internalNodes>
          <leafValues>
            3.7631410360336304e-01 -4.8910078406333923e-01</leafValues></_></weakClassifiers></_>
    <!-- stage 16 -->
    <_>
      <maxWeakCount>5</maxWeakCount>
      <stageThreshold>-1.7878606319427490e+00</stageThreshold>
      <weakClassifiers>
        <_>
          <internalNodes>
            0 -1 23 -3.5353206098079681e-02</internalNodes>
          <leafValues>
            7.5000000000000000e-01 -9.4357979297637939e-01</leafValues></_>
        <_>
          <internalNodes>
            0 -1 2 -2.4951945245265961e-01</internalNodes>
          <leafValues>
            6.2965673208236694e-01 -7.2258865833282471e-01</leafValues></_>
        <_>
          <internalNodes>
            0 -1 48 3.3600241295062006e-04</internalNodes>
          <leafValues>
            -5.7487285137176514e-01 2.1616068482398987e-01</leafValues></_>
        <_>
          <internalNodes>
            0 -1 44 2.5297654792666435e-03</internalNodes>
          <leafValues>
            -5.3393447399139404e-01 3.0367296934127808e-01</leafValues></_>
        <_>
          <internalNodes>
            0 -1 68 1.6992770833894610e-03</internalNodes>
          <leafValues>
            -6.4152580499649048e-01 2.9434409737586975e-01</leafValues></_></weakClassifiers></_></stages>
  <features>
    <_>
      <rects>
        <_>
          0 3 15 9 -1.</_>
        <_>
          0 6 15 3 3.</_></rects>
      <tilted>0</tilted></_>
    <_>
      <rects>
        <_>
          0 4 9 1 -1.</_>
        <_>
          3 4 3 1 3.</_></rects>
      <tilted>0</tilted></_>
    <_>
      <rects>
        <_>
          0 7 12 14 -1.</_>
        <_>
          6 7 6 14 2.</_></rects>
      <tilted>0</tilted></_>
    <_>
      <rects>
        <_>
          0 14 24 2 -1.</_>
        <_>
          8 14 8 2 3.</_></rects>
      <tilted>0</tilted></_>
    <_>
      <rects>
        <_>
          1 6 21 13 -1.</_>
        <_>
          8 6 7 13 3.</_></rects>
      <tilted>0</tilted></_>
    <_>
      <rects>
        <_>
          1 10 21 8 -1.</_>
        <_>
          8 10 7 8 3.</_></rects>
      <tilted>0</tilted></_>
    <_>
      <rects>
        <_>
          1 11 2 6 -1.</_>
        <_>
          1 11 1 3 2.</_>
        <_>
          2 14 1 3 2.</_></rects>
      <tilted>0</tilted></_>
    <_>
      <rects>
        <_>
          1 14 21 6 -1.</_>
        <_>
          8 14 7 6 3.</_></rects>
      <tilted>0</tilted></_>
    <_>
      <rects>
        <_>
          1 22 2 2 -1.</_>
        <_>
          1 23 2 1 2.</_></rects>
      <tilted>0</tilted></_>
    <_>
      <rects>
        <_>
          2 10 8 10 -1.</_>
        <_>
          2 10 4 5 2.</_>
        <_>
          6 15 4 5 2.</_></rects>
      <tilted>0</tilted></_>
    <_>
      <rects>
        <_>
          2 11 6 4 -1.</_>
        <_>
          5 11 3 4 2.</_></rects>
      <tilted>0</tilted></_>
    <_>
      <rects>
        <_>
          2 12 11 2 -1.</_>
        <_>
          2 13 11 1 2.</_></rects>
      <tilted>0</tilted></_>
    <_>
      <rects>
        <_>
          2 12 12 2 -1.</_>
        <_>
          2 13 12 1 2.</_></rects>
      <tilted>0</tilted></_>
    <_>
      <rects>
        <_>
          2 13 2 2 -1.</_>
        <_>
          3 13 1 2 2.</_></rects>
      <tilted>0</tilted></_>
    <_>
      <rects>
        <_>
          2 15 18 5 -1.</_>
        <_>
          8 15 6 5 3.</_></rects>
      <tilted>0</tilted></_>
    <_>
      <rects>
        <_>
          2 18 21 2 -1.</_>
        <_>
          9 18 7 2 3.</_></rects>
      <tilted>0</tilted></_>
    <_>
      <rects>
        <_>
          3 0 2 22 -1.</_>
        <_>
          4 0 1 22 2.</_></rects>
      <tilted>0</tilted></_>
    <_>
      <rects>
        <_>
          3 2 18 1 -1.</_>
        <_>
          9 2 6 1 3.</_></rects>
      <tilted>0</tilted></_>
    <_>
      <rects>
        <_>
          3 2 10 10 -1.</_>
        <_>
          3 7 10 5 2.</_></rects>
      <tilted>0</tilted></_>
    <_>
      <rects>
        <_>
          3 2 15 10 -1.</_>
        <_>
          3 7 15 5 2.</_></rects>
      <tilted>0</tilted></_>
    <_>
      <rects>
        <_>
          3 11 9 3 -1.</_>
        <_>
          6 11 3 3 3.</_></rects>
      <tilted>0</tilted></_>
    <_>
      <rects>
        <_>
          3 13 18 9 -1.</_>
        <_>
          9 13 6 9 3.</_></rects>
      <tilted>0</tilted></_>
    <_>
      <rects>
        <_>
          3 14 18 3 -1.</_>
        <_>
          9 14 6 3 3.</_></rects>
      <tilted>0</tilted></_>
    <_>
      <rects>
        <_>
          3 18 12 1 -1.</_>
        <_>
          9 18 6 1 2.</_></rects>
      <tilted>0</tilted></_>
    <_>
      <rects>
        <_>
          3 18 18 2 -1.</_>
        <_>
          9 18 6 2 3.</_></rects>
      <tilted>0</tilted></_>
    <_>
      <rects>
        <_>
          4 0 2 4 -1.</_>
        <_>
          4 0 1 2 2.</_>
        <_>
          5 2 1 2 2.</_></rects>
      <tilted>0</tilted></_>
    <_>
      <rects>
        <_>
          4 0 9 3 -1.</_>
        <_>
          7 0 3 3 3.</_></rects>
      <tilted>0</tilted></_>
    <_>
      <rects>
        <_>
          4 2 15 18 -1.</_>
        <_>
          9 2 5 18 3.</_></rects>
      <tilted>0</tilted></_>
    <_>
      <rects>
        <_>
          4 13 15 9 -1.</_>
        <_>
          9 13 5 9 3.</_></rects>
      <tilted>0</tilted></_>
    <_>
      <rects>
        <_>
          4 14 15 9 -1.</_>
        <_>
          9 14 5 9 3.</_></rects>
      <tilted>0</tilted></_>
    <_>
      <rects>
        <_>
          4 21 2 3 -1.</_>
        <_>
          4 22 2 1 3.</_></rects>
      <tilted>0</tilted></_>
    <_>
      <rects>
        <_>
          5 1 6 6 -1.</_>
        <_>
          5 3 6 2 3.</_></rects>
      <tilted>0</tilted></_>
    <_>
      <rects>
        <_>
          5 1 16 6 -1.</_>
        <_>
          5 3 16 2 3.</_></rects>
      <tilted>0</tilted></_>
    <_>
      <rects>
        <_>
          5 2 15 7 -1.</_>
        <_>
          10 2 5 7 3.</_></rects>
      <tilted>0</tilted></_>
    <_>
      <rects>
        <_>
          6 1 3 8 -1.</_>
        <_>
          6 5 3 4 2.</_></rects>
      <tilted>0</tilted></_>
    <_>
      <rects>
        <_>
          6 5 12 11 -1.</_>
        <_>
          10 5 4 11 3.</_></rects>
      <tilted>0</tilted></_>
    <_>
      <rects>
        <_>
          6 18 6 2 -1.</_>
        <_>
          9 18 3 2 2.</_></rects>
      <tilted>0</tilted></_>
    <_>
      <rects>
        <_>
          6 18 6 4 -1.</_>
        <_>
          6 18 3 2 2.</_>
        <_>
          9 20 3 2 2.</_></rects>
      <tilted>0</tilted></_>
    <_>
      <rects>
        <_>
          7 0 7 6 -1.</_>
        <_>
          7 2 7 2 3.</_></rects>
      <tilted>0</tilted></_>
    <_>
      <rects>
        <_>
          7 1 16 5 -1.</_>
        <_>
          15 1 8 5 2.</_></rects>
      <tilted>0</tilted></_>
    <_>
      <rects>
        <_>
          7 2 9 1 -1.</_>
        <_>
          10 2 3 1 3.</_></rects>
      <tilted>0</tilted></_>
    <_>
      <rects>
        <_>
          7 4 12 1 -1.</_>
        <_>
          11 4 4 1 3.</_></rects>
      <tilted>0</tilted></_>
    <_>
      <rects>
        <_>
          7 7 2 1 -1.</_>
        <_>
          8 7 1 1 2.</_></rects>
      <tilted>0</tilted></_>
    <_>
      <rects>
        <_>
          7 11 6 2 -1.</_>
        <_>
          9 11 2 2 3.</_></rects>
      <tilted>0</tilted></_>
    <_>
      <rects>
        <_>
          7 16 8 8 -1.</_>
        <_>
          7 16 4 4 2.</_>
        <_>
          11 20 4 4 2.</_></rects>
      <tilted>0</tilted></_>
    <_>
      <rects>
        <_>
          7 21 1 2 -1.</_>
        <_>
          7 22 1 1 2.</_></rects>
      <tilted>0</tilted></_>
    <_>
      <rects>
        <_>
          8 0 1 6 -1.</_>
        <_>
          8 2 1 2 3.</_></rects>
      <tilted>0</tilted></_>
    <_>
      <rects>
        <_>
          8 5 2 14 -1.</_>
        <_>
          9 5 1 14 2.</_></rects>
      <tilted>0</tilted></_>
    <_>
      <rects>
        <_>
          8 19 2 2 -1.</_>
        <_>
          9 19 1 2 2.</_></rects>
      <tilted>0</tilted></_>
    <_>
      <rects>
        <_>
          8 20 12 1 -1.</_>
        <_>
          14 20 6 1 2.</_></rects>
      <tilted>0</tilted></_>
    <_>
      <rects>
        <_>
          8 20 6 2 -1.</_>
        <_>
          8 21 6 1 2.</_></rects>
      <tilted>0</tilted></_>
    <_>
      <rects>
        <_>
          9 1 2 20 -1.</_>
        <_>
          9 11 2 10 2.</_></rects>
      <tilted>0</tilted></_>
    <_>
      <rects>
        <_>
          9 9 5 6 -1.</_>
        <_>
          9 11 5 2 3.</_></rects>
      <tilted>0</tilted></_>
    <_>
      <rects>
        <_>
          9 18 12 4 -1.</_>
        <_>
          9 18 6 2 2.</_>
        <_>
          15 20 6 2 2.</_></rects>
      <tilted>0</tilted></_>
    <_>
      <rects>
        <_>
          10 0 2 12 -1.</_>
        <_>
          10 4 2 4 3.</_></rects>
      <tilted>0</tilted></_>
    <_>
      <rects>
        <_>
          10 5 3 6 -1.</_>
        <_>
          10 8 3 3 2.</_></rects>
      <tilted>0</tilted></_>
    <_>
      <rects>
        <_>
          10 11 8 10 -1.</_>
        <_>
          10 11 4 5 2.</_>
        <_>
          14 16 4 5 2.</_></rects>
      <tilted>0</tilted></_>
    <_>
      <rects>
        <_>
          11 1 1 12 -1.</_>
        <_>
          11 5 1 4 3.</_></rects>
      <tilted>0</tilted></_>
    <_>
      <rects>
        <_>
          11 2 3 1 -1.</_>
        <_>
          12 2 1 1 3.</_></rects>
      <tilted>0</tilted></_>
    <_>
      <rects>
        <_>
          11 3 8 15 -1.</_>
        <_>
          15 3 4 15 2.</_></rects>
      <tilted>0</tilted></_>
    <_>
      <rects>
        <_>
          11 12 7 12 -1.</_>
        <_>
          11 16 7 4 3.</_></rects>
      <tilted>0</tilted></_>
    <_>
      <rects>
        <_>
          11 16 2 2 -1.</_>
        <_>
          11 17 2 1 2.</_></rects>
      <tilted>0</tilted></_>
    <_>
      <rects>
        <_>
          12 0 10 24 -1.</_>
        <_>
          17 0 5 24 2.</_></rects>
      <tilted>0</tilted></_>
    <_>
      <rects>
        <_>
          12 7 4 4 -1.</_>
        <_>
          14 7 2 4 2.</_></rects>
      <tilted>0</tilted></_>
    <_>
      <rects>
        <_>
          13 0 1 2 -1.</_>
        <_>
          13 1 1 1 2.</_></rects>
      <tilted>0</tilted></_>
    <_>
      <rects>
        <_>
          13 2 3 13 -1.</_>
        <_>
          14 2 1 13 3.</_></rects>
      <tilted>0</tilted></_>
    <_>
      <rects>
        <_>
          14 0 4 1 -1.</_>
        <_>
          16 0 2 1 2.</_></rects>
      <tilted>0</tilted></_>
    <_>
      <rects>
        <_>
          14 5 8 4 -1.</_>
        <_>
          14 5 4 2 2.</_>
        <_>
          18 7 4 2 2.</_></rects>
      <tilted>0</tilted></_>
    <_>
      <rects>
        <_>
          14 18 6 3 -1.</_>
        <_>
          16 18 2 3 3.</_></rects>
      <tilted>0</tilted></_>
    <_>
      <rects>
        <_>
          14 19 6 2 -1.</_>
        <_>
          16 19 2 2 3.</_></rects>
      <tilted>0</tilted></_>
    <_>
      <rects>
        <_>
          15 0 3 2 -1.</_>
        <_>
          16 0 1 2 3.</_></rects>
      <tilted>0</tilted></_>
    <_>
      <rects>
        <_>
          15 1 3 1 -1.</_>
        <_>
          16 1 1 1 3.</_></rects>
      <tilted>0</tilted></_>
    <_>
      <rects>
        <_>
          16 0 2 2 -1.</_>
        <_>
          16 0 1 1 2.</_>
        <_>
          17 1 1 1 2.</_></rects>
      <tilted>0</tilted></_>
    <_>
      <rects>
        <_>
          16 5 3 2 -1.</_>
        <_>
          16 6 3 1 2.</_></rects>
      <tilted>0</tilted></_>
    <_>
      <rects>
        <_>
          17 2 3 6 -1.</_>
        <_>
          17 4 3 2 3.</_></rects>
      <tilted>0</tilted></_>
    <_>
      <rects>
        <_>
          18 13 4 4 -1.</_>
        <_>
          18 13 2 2 2.</_>
        <_>
          20 15 2 2 2.</_></rects>
      <tilted>0</tilted></_>
    <_>
      <rects>
        <_>
          18 23 6 1 -1.</_>
        <_>
          21 23 3 1 2.</_></rects>
      <tilted>0</tilted></_>
    <_>
      <rects>
        <_>
          22 9 2 5 -1.</_>
        <_>
          23 9 1 5 2.</_></rects>
      <tilted>0</tilted></_></features></cascade>
</opencv_storage>
