<?xml version="1.0"?>
<opencv_storage>
<cascade>
  <stageType>BOOST</stageType>
  <featureType>HAAR</featureType>
  <height>24</height>
  <width>24</width>
  <stageParams>
    <boostType>GAB</boostType>
    <minHitRate>9.9500000476837158e-01</minHitRate>
    <maxFalseAlarm>5.0000000000000000e-01</maxFalseAlarm>
    <weightTrimRate>9.4999998807907104e-01</weightTrimRate>
    <maxDepth>1</maxDepth>
    <maxWeakCount>100</maxWeakCount></stageParams>
  <featureParams>
    <maxCatCount>0</maxCatCount>
    <featSize>1</featSize>
    <mode>BASIC</mode></featureParams>
  <stageNum>6</stageNum>
  <stages>
    <!-- stage 0 -->
    <_>
      <maxWeakCount>3</maxWeakCount>
      <stageThreshold>-1.1117631196975708e+00</stageThreshold>
      <weakClassifiers>
        <_>
          <internalNodes>
            0 -1 3 -1.2180595099925995e-01</internalNodes>
          <leafValues>
            8.6666667461395264e-01 -9.8609042167663574e-01</leafValues></_>
        <_>
          <internalNodes>
            0 -1 12 -1.4287781715393066e-01</internalNodes>
          <leafValues>
            9.7103863954544067e-01 -9.5291382074356079e-01</leafValues></_>
        <_>
          <internalNodes>
            0 -1 2 -2.7373123168945313e-01</internalNodes>
          <leafValues>
            8.2724112272262573e-01 -9.7184246778488159e-01</leafValues></_></weakClassifiers></_>
    <!-- stage 1 -->
    <_>
      <maxWeakCount>3</maxWeakCount>
      <stageThreshold>-1.4411231279373169e+00</stageThreshold>
      <weakClassifiers>
        <_>
          <internalNodes>
            0 -1 10 -3.2848030328750610e-01</internalNodes>
          <leafValues>
            8.3333331346511841e-01 -9.8313492536544800e-01</leafValues></_>
        <_>
          <internalNodes>
            0 -1 14 1.3317836448550224e-02</internalNodes>
          <leafValues>
            -9.6608477830886841e-01 6.3939064741134644e-01</leafValues></_>
        <_>
          <internalNodes>
            0 -1 15 -9.9009685218334198e-02</internalNodes>
          <leafValues>
            5.0809657573699951e-01 -9.5674973726272583e-01</leafValues></_></weakClassifiers></_>
    <!-- stage 2 -->
    <_>
      <maxWeakCount>3</maxWeakCount>
      <stageThreshold>-1.5412104129791260e+00</stageThreshold>
      <weakClassifiers>
        <_>
          <internalNodes>
            0 -1 8 -3.2907910645008087e-02</internalNodes>
          <leafValues>
            8.0000001192092896e-01 -9.8116946220397949e-01</leafValues></_>
        <_>
          <internalNodes>
            0 -1 7 -2.3830273747444153e-01</internalNodes>
          <leafValues>
            2.8859373927116394e-01 -9.5354682207107544e-01</leafValues></_>
        <_>
          <internalNodes>
            0 -1 11 1.3540318608283997e-01</internalNodes>
          <leafValues>
            -8.4863466024398804e-01 6.5395373106002808e-01</leafValues></_></weakClassifiers></_>
    <!-- stage 3 -->
    <_>
      <maxWeakCount>3</maxWeakCount>
      <stageThreshold>-1.2777886390686035e+00</stageThreshold>
      <weakClassifiers>
        <_>
          <internalNodes>
            0 -1 6 -3.4779572486877441e-01</internalNodes>
          <leafValues>
            6.3636362552642822e-01 -9.8116016387939453e-01</leafValues></_>
        <_>
          <internalNodes>
            0 -1 5 -1.4424011111259460e-01</internalNodes>
          <leafValues>
            7.2696888446807861e-01 -9.1294097900390625e-01</leafValues></_>
        <_>
          <internalNodes>
            0 -1 16 -1.6001373529434204e-02</internalNodes>
          <leafValues>
            6.1631244421005249e-01 -9.2231673002243042e-01</leafValues></_></weakClassifiers></_>
    <!-- stage 4 -->
    <_>
      <maxWeakCount>4</maxWeakCount>
      <stageThreshold>-1.8686343431472778e+00</stageThreshold>
      <weakClassifiers>
        <_>
          <internalNodes>
            0 -1 4 -1.6631463170051575e-01</internalNodes>
          <leafValues>
            1. -9.7823935747146606e-01</leafValues></_>
        <_>
          <internalNodes>
            0 -1 13 -5.4541841149330139e-02</internalNodes>
          <leafValues>
            1. -8.9287286996841431e-01</leafValues></_>
        <_>
          <internalNodes>
            0 -1 18 -4.2694443464279175e-01</internalNodes>
          <leafValues>
            8.0939930677413940e-01 -6.8349426984786987e-01</leafValues></_>
        <_>
          <internalNodes>
            0 -1 9 1.4917995035648346e-01</internalNodes>
          <leafValues>
            -6.5998035669326782e-01 6.8597221374511719e-01</leafValues></_></weakClassifiers></_>
    <!-- stage 5 -->
    <_>
      <maxWeakCount>4</maxWeakCount>
      <stageThreshold>-2.3693704605102539e+00</stageThreshold>
      <weakClassifiers>
        <_>
          <internalNodes>
            0 -1 0 -3.0132144689559937e-01</internalNodes>
          <leafValues>
            1. -9.7823935747146606e-01</leafValues></_>
        <_>
          <internalNodes>
            0 -1 17 -3.7178039550781250e-02</internalNodes>
          <leafValues>
            2.2242003679275513e-01 -9.1676771640777588e-01</leafValues></_>
        <_>
          <internalNodes>
            0 -1 19 -8.8561698794364929e-03</internalNodes>
          <leafValues>
            1.7206011712551117e-01 -8.8771736621856689e-01</leafValues></_>
        <_>
          <internalNodes>
            0 -1 1 -1.5245962142944336e-01</internalNodes>
          <leafValues>
            4.1335397958755493e-01 -8.5475063323974609e-01</leafValues></_></weakClassifiers></_></stages>
  <features>
    <_>
      <rects>
        <_>
          0 1 10 22 -1.</_>
        <_>
          5 1 5 22 2.</_></rects>
      <tilted>0</tilted></_>
    <_>
      <rects>
        <_>
          0 2 21 10 -1.</_>
        <_>
          7 2 7 10 3.</_></rects>
      <tilted>0</tilted></_>
    <_>
      <rects>
        <_>
          0 7 24 11 -1.</_>
        <_>
          8 7 8 11 3.</_></rects>
      <tilted>0</tilted></_>
    <_>
      <rects>
        <_>
          0 14 24 2 -1.</_>
        <_>
          8 14 8 2 3.</_></rects>
      <tilted>0</tilted></_>
    <_>
      <rects>
        <_>
          1 1 21 2 -1.</_>
        <_>
          8 1 7 2 3.</_></rects>
      <tilted>0</tilted></_>
    <_>
      <rects>
        <_>
          1 5 20 4 -1.</_>
        <_>
          1 7 20 2 2.</_></rects>
      <tilted>0</tilted></_>
    <_>
      <rects>
        <_>
          1 14 21 8 -1.</_>
        <_>
          8 14 7 8 3.</_></rects>
      <tilted>0</tilted></_>
    <_>
      <rects>
        <_>
          2 0 19 10 -1.</_>
        <_>
          2 5 19 5 2.</_></rects>
      <tilted>0</tilted></_>
    <_>
      <rects>
        <_>
          6 1 12 1 -1.</_>
        <_>
          10 1 4 1 3.</_></rects>
      <tilted>0</tilted></_>
    <_>
      <rects>
        <_>
          7 13 16 8 -1.</_>
        <_>
          15 13 8 8 2.</_></rects>
      <tilted>0</tilted></_>
    <_>
      <rects>
        <_>
          9 0 5 24 -1.</_>
        <_>
          9 8 5 8 3.</_></rects>
      <tilted>0</tilted></_>
    <_>
      <rects>
        <_>
          9 8 4 16 -1.</_>
        <_>
          9 16 4 8 2.</_></rects>
      <tilted>0</tilted></_>
    <_>
      <rects>
        <_>
          10 0 3 21 -1.</_>
        <_>
          10 7 3 7 3.</_></rects>
      <tilted>0</tilted></_>
    <_>
      <rects>
        <_>
          10 1 4 6 -1.</_>
        <_>
          10 3 4 2 3.</_></rects>
      <tilted>0</tilted></_>
    <_>
      <rects>
        <_>
          10 6 2 6 -1.</_>
        <_>
          10 9 2 3 2.</_></rects>
      <tilted>0</tilted></_>
    <_>
      <rects>
        <_>
          10 8 6 15 -1.</_>
        <_>
          10 13 6 5 3.</_></rects>
      <tilted>0</tilted></_>
    <_>
      <rects>
        <_>
          10 11 6 4 -1.</_>
        <_>
          10 13 6 2 2.</_></rects>
      <tilted>0</tilted></_>
    <_>
      <rects>
        <_>
          11 0 1 14 -1.</_>
        <_>
          11 7 1 7 2.</_></rects>
      <tilted>0</tilted></_>
    <_>
      <rects>
        <_>
          12 1 10 21 -1.</_>
        <_>
          12 8 10 7 3.</_></rects>
      <tilted>0</tilted></_>
    <_>
      <rects>
        <_>
          17 0 1 20 -1.</_>
        <_>
          17 10 1 10 2.</_></rects>
      <tilted>0</tilted></_></features></cascade>
</opencv_storage>
